Language model created by QuickLM on Wed Apr 18 23:01:21 EDT 2018
Copyright (c) 1996-2010 Carnegie Mellon University and Alexander I. Rudnicky

The model is in standard ARPA format, designed by Doug Paul while he was at MITRE.

The code that was used to produce this language model is available in Open Source.
Please visit http://www.speech.cs.cmu.edu/tools/ for more information

The (fixed) discount mass is 0.5. The backoffs are computed using the ratio method.
This model based on a corpus of 15 sentences and 38 words

\data\
ngram 1=38
ngram 2=54
ngram 3=67

\1-grams:
-1.1780 </s> -0.3010
-1.1780 <\s> -0.2712
-0.8770 <s> -0.2046
-2.3541 A -0.2991
-2.0531 AM -0.2972
-2.3541 AN -0.2991
-2.3541 CATS -0.2712
-2.0531 CHECK -0.2972
-2.3541 DOWN -0.2712
-2.3541 EMAIL -0.2712
-2.3541 FOOD -0.2712
-1.6551 FOR -0.2913
-2.3541 FOURTY-TWO -0.2991
-2.3541 HISTORY -0.2712
-2.0531 I -0.2712
-2.0531 LIGHTS -0.2972
-2.3541 MEMES -0.2712
-2.3541 MOVIES -0.2712
-2.3541 MY -0.2991
-2.3541 NEW -0.2712
-2.3541 PLAY -0.2991
-1.7520 SEARCH -0.2913
-2.3541 SECONDS -0.2712
-2.3541 SEND -0.2991
-2.3541 SET -0.2991
-2.3541 SONG -0.2712
-1.6551 THE -0.2913
-2.3541 THEME -0.2991
-2.3541 TIMER -0.2913
-2.3541 TRAFFIC -0.2712
-2.3541 UP -0.2712
-2.3541 WEATHER -0.2712
-1.7520 WEB -0.2913
-2.3541 WHAT'S -0.2991
-2.3541 WHATS -0.2913
-2.3541 WHERE -0.2972
-2.3541 WHO -0.2972
-2.3541 YOUR -0.2991

\2-grams:
-0.3010 <\s> </s> -0.3010
-0.6021 <s> <s> -0.1761
-1.4771 <s> CHECK 0.0000
-1.4771 <s> LIGHTS 0.0000
-1.7782 <s> PLAY 0.0000
-1.1761 <s> SEARCH 0.0000
-1.7782 <s> SEND 0.0000
-1.7782 <s> SET 0.0000
-1.7782 <s> WHAT'S 0.0000
-1.7782 <s> WHATS 0.0000
-1.7782 <s> WHERE 0.0000
-1.7782 <s> WHO 0.0000
-0.3010 A TIMER 0.0000
-0.3010 AM I 0.0000
-0.3010 AN EMAIL 0.0000
-0.3010 CATS <\s> 0.0000
-0.6021 CHECK MY 0.0000
-0.6021 CHECK TRAFFIC 0.0000
-0.3010 DOWN <\s> 0.0000
-0.3010 EMAIL <\s> 0.0000
-0.3010 FOOD <\s> 0.0000
-1.0000 FOR CATS 0.0000
-1.0000 FOR FOOD 0.0000
-1.0000 FOR FOURTY-TWO 0.0000
-1.0000 FOR MEMES 0.0000
-1.0000 FOR MOVIES 0.0000
-0.3010 FOURTY-TWO SECONDS 0.0000
-0.3010 HISTORY <\s> 0.0000
-0.3010 I <\s> 0.0000
-0.6021 LIGHTS DOWN 0.0000
-0.6021 LIGHTS UP 0.0000
-0.3010 MEMES <\s> 0.0000
-0.3010 MOVIES <\s> 0.0000
-0.3010 MY HISTORY 0.0000
-0.3010 NEW <\s> 0.0000
-0.3010 PLAY YOUR 0.0000
-0.3010 SEARCH THE -0.0792
-0.3010 SECONDS <\s> 0.0000
-0.3010 SEND AN 0.0000
-0.3010 SET A 0.0000
-0.3010 SONG <\s> 0.0000
-1.0000 THE WEATHER 0.0000
-0.3979 THE WEB 0.0000
-0.3010 THEME SONG 0.0000
-0.3010 TIMER FOR -0.2553
-0.3010 TRAFFIC <\s> 0.0000
-0.3010 UP <\s> 0.0000
-0.3010 WEATHER <\s> 0.0000
-0.3010 WEB FOR -0.0792
-0.3010 WHAT'S NEW 0.0000
-0.3010 WHATS THE -0.2553
-0.3010 WHERE AM 0.0000
-0.3010 WHO AM 0.0000
-0.3010 YOUR THEME 0.0000

\3-grams:
-1.1761 <s> <s> CHECK
-1.1761 <s> <s> LIGHTS
-1.4771 <s> <s> PLAY
-0.8751 <s> <s> SEARCH
-1.4771 <s> <s> SEND
-1.4771 <s> <s> SET
-1.4771 <s> <s> WHAT'S
-1.4771 <s> <s> WHATS
-1.4771 <s> <s> WHERE
-1.4771 <s> <s> WHO
-0.6021 <s> CHECK MY
-0.6021 <s> CHECK TRAFFIC
-0.6021 <s> LIGHTS DOWN
-0.6021 <s> LIGHTS UP
-0.3010 <s> PLAY YOUR
-0.3010 <s> SEARCH THE
-0.3010 <s> SEND AN
-0.3010 <s> SET A
-0.3010 <s> WHAT'S NEW
-0.3010 <s> WHATS THE
-0.3010 <s> WHERE AM
-0.3010 <s> WHO AM
-0.3010 A TIMER FOR
-0.3010 AM I <\s>
-0.3010 AN EMAIL <\s>
-0.3010 CATS <\s> </s>
-0.3010 CHECK MY HISTORY
-0.3010 CHECK TRAFFIC <\s>
-0.3010 DOWN <\s> </s>
-0.3010 EMAIL <\s> </s>
-0.3010 FOOD <\s> </s>
-0.3010 FOR CATS <\s>
-0.3010 FOR FOOD <\s>
-0.3010 FOR FOURTY-TWO SECONDS
-0.3010 FOR MEMES <\s>
-0.3010 FOR MOVIES <\s>
-0.3010 FOURTY-TWO SECONDS <\s>
-0.3010 HISTORY <\s> </s>
-0.3010 I <\s> </s>
-0.3010 LIGHTS DOWN <\s>
-0.3010 LIGHTS UP <\s>
-0.3010 MEMES <\s> </s>
-0.3010 MOVIES <\s> </s>
-0.3010 MY HISTORY <\s>
-0.3010 NEW <\s> </s>
-0.3010 PLAY YOUR THEME
-0.3010 SEARCH THE WEB
-0.3010 SECONDS <\s> </s>
-0.3010 SEND AN EMAIL
-0.3010 SET A TIMER
-0.3010 SONG <\s> </s>
-0.3010 THE WEATHER <\s>
-0.3010 THE WEB FOR
-0.3010 THEME SONG <\s>
-0.3010 TIMER FOR FOURTY-TWO
-0.3010 TRAFFIC <\s> </s>
-0.3010 UP <\s> </s>
-0.3010 WEATHER <\s> </s>
-0.9031 WEB FOR CATS
-0.9031 WEB FOR FOOD
-0.9031 WEB FOR MEMES
-0.9031 WEB FOR MOVIES
-0.3010 WHAT'S NEW <\s>
-0.3010 WHATS THE WEATHER
-0.3010 WHERE AM I
-0.3010 WHO AM I
-0.3010 YOUR THEME SONG

\end\
