Language model created by QuickLM on Sat Apr 14 23:57:01 EDT 2018
Copyright (c) 1996-2010 Carnegie Mellon University and Alexander I. Rudnicky

The model is in standard ARPA format, designed by Doug Paul while he was at MITRE.

The code that was used to produce this language model is available in Open Source.
Please visit http://www.speech.cs.cmu.edu/tools/ for more information

The (fixed) discount mass is 0.5. The backoffs are computed using the ratio method.
This model based on a corpus of 20 sentences and 51 words

\data\
ngram 1=51
ngram 2=73
ngram 3=91

\1-grams:
-1.1367 </s> -0.3010
-1.1367 <\s> -0.2681
-0.8357 <s> -0.1917
-2.4378 A -0.2978
-2.1367 AM -0.2962
-2.4378 BIRTHDAY -0.2681
-2.4378 CHANGE -0.2681
-2.4378 CHECK -0.2994
-2.4378 CHROME -0.2681
-2.4378 COLOR -0.2994
-2.4378 DARKNESS -0.2681
-2.4378 DON'T -0.2994
-2.4378 DOWN -0.2681
-2.4378 FOR? -0.2681
-2.4378 FORTY-TWO -0.2994
-2.4378 HAPPY -0.2994
-2.4378 HELLO -0.2994
-2.4378 HIDE -0.2978
-1.9606 I -0.2664
-2.4378 KNOW -0.2994
-2.1367 LIGHTS -0.2978
-2.4378 LIKE -0.2994
-2.1367 LOG -0.2681
-2.4378 ME -0.2994
-2.4378 MUSIC -0.2994
-2.1367 OPEN -0.2978
-2.4378 PIZZA -0.2681
-2.4378 PLAYER -0.2681
-2.4378 RICK -0.2994
-2.4378 ROLL -0.2681
-2.1367 SEARCH -0.2962
-2.4378 SHOW -0.2978
-2.4378 SILICON -0.2994
-2.4378 SING -0.2994
-2.1367 SONG -0.2681
-2.4378 SORRY -0.2962
-2.4378 THAT -0.2978
-2.1367 THE -0.2978
-2.4378 THEME -0.2994
-2.4378 TO -0.2978
-2.4378 TRAFFIC -0.2681
-2.4378 UP -0.2681
-2.4378 VALLEY -0.2681
-2.4378 WEATHER -0.2681
-2.4378 WEB -0.2681
-2.4378 WHAT -0.2994
-2.4378 WHAT'S -0.2978
-2.4378 WHERE -0.2978
-2.4378 WHO -0.2978
-2.4378 WOULD -0.2994
-2.4378 YOU -0.2994

\2-grams:
-0.3010 <\s> </s> -0.3010
-0.6021 <s> <s> -0.1761
-1.9031 <s> CHECK 0.0000
-1.9031 <s> COLOR 0.0000
-1.9031 <s> FORTY-TWO 0.0000
-1.9031 <s> HAPPY 0.0000
-1.9031 <s> HELLO 0.0000
-1.9031 <s> HIDE 0.0000
-1.6021 <s> LIGHTS 0.0000
-1.6021 <s> OPEN 0.0000
-1.9031 <s> PIZZA 0.0000
-1.9031 <s> RICK 0.0000
-1.9031 <s> SEARCH -0.1761
-1.9031 <s> SHOW 0.0000
-1.9031 <s> SING 0.0000
-1.9031 <s> SORRY 0.0000
-1.9031 <s> WHAT 0.0000
-1.9031 <s> WHAT'S 0.0000
-1.9031 <s> WHERE 0.0000
-1.9031 <s> WHO 0.0000
-0.3010 A SONG 0.0000
-0.3010 AM I -0.1249
-0.3010 BIRTHDAY <\s> 0.0000
-0.3010 CHANGE <\s> 0.0000
-0.3010 CHECK TRAFFIC 0.0000
-0.3010 CHROME <\s> 0.0000
-0.3010 COLOR THEME 0.0000
-0.3010 DARKNESS <\s> 0.0000
-0.3010 DON'T KNOW 0.0000
-0.3010 DOWN <\s> 0.0000
-0.3010 FOR? <\s> 0.0000
-0.3010 FORTY-TWO SILICON 0.0000
-0.3010 HAPPY BIRTHDAY 0.0000
-0.3010 HELLO DARKNESS 0.0000
-0.3010 HIDE LOG 0.0000
-0.4771 I <\s> 0.0000
-0.7782 I DON'T 0.0000
-0.3010 KNOW THAT 0.0000
-0.6021 LIGHTS DOWN 0.0000
-0.6021 LIGHTS UP 0.0000
-0.3010 LIKE TO 0.0000
-0.3010 LOG <\s> 0.0000
-0.3010 ME A 0.0000
-0.3010 MUSIC PLAYER 0.0000
-0.6021 OPEN CHROME 0.0000
-0.6021 OPEN MUSIC 0.0000
-0.3010 PIZZA <\s> 0.0000
-0.3010 PLAYER <\s> 0.0000
-0.3010 RICK ROLL 0.0000
-0.3010 ROLL <\s> 0.0000
-0.6021 SEARCH FOR? 0.0000
-0.6021 SEARCH THE -0.1761
-0.3010 SHOW LOG 0.0000
-0.3010 SILICON VALLEY 0.0000
-0.3010 SING ME 0.0000
-0.3010 SONG <\s> 0.0000
-0.3010 SORRY I -0.2218
-0.3010 THAT SONG 0.0000
-0.6021 THE WEATHER 0.0000
-0.6021 THE WEB 0.0000
-0.3010 THEME CHANGE 0.0000
-0.3010 TO SEARCH -0.1761
-0.3010 TRAFFIC <\s> 0.0000
-0.3010 UP <\s> 0.0000
-0.3010 VALLEY <\s> 0.0000
-0.3010 WEATHER <\s> 0.0000
-0.3010 WEB <\s> 0.0000
-0.3010 WHAT WOULD 0.0000
-0.3010 WHAT'S THE -0.1761
-0.3010 WHERE AM 0.0000
-0.3010 WHO AM 0.0000
-0.3010 WOULD YOU 0.0000
-0.3010 YOU LIKE 0.0000

\3-grams:
-1.6021 <s> <s> CHECK
-1.6021 <s> <s> COLOR
-1.6021 <s> <s> FORTY-TWO
-1.6021 <s> <s> HAPPY
-1.6021 <s> <s> HELLO
-1.6021 <s> <s> HIDE
-1.3010 <s> <s> LIGHTS
-1.3010 <s> <s> OPEN
-1.6021 <s> <s> PIZZA
-1.6021 <s> <s> RICK
-1.6021 <s> <s> SEARCH
-1.6021 <s> <s> SHOW
-1.6021 <s> <s> SING
-1.6021 <s> <s> SORRY
-1.6021 <s> <s> WHAT
-1.6021 <s> <s> WHAT'S
-1.6021 <s> <s> WHERE
-1.6021 <s> <s> WHO
-0.3010 <s> CHECK TRAFFIC
-0.3010 <s> COLOR THEME
-0.3010 <s> FORTY-TWO SILICON
-0.3010 <s> HAPPY BIRTHDAY
-0.3010 <s> HELLO DARKNESS
-0.3010 <s> HIDE LOG
-0.6021 <s> LIGHTS DOWN
-0.6021 <s> LIGHTS UP
-0.6021 <s> OPEN CHROME
-0.6021 <s> OPEN MUSIC
-0.3010 <s> PIZZA <\s>
-0.3010 <s> RICK ROLL
-0.3010 <s> SEARCH THE
-0.3010 <s> SHOW LOG
-0.3010 <s> SING ME
-0.3010 <s> SORRY I
-0.3010 <s> WHAT WOULD
-0.3010 <s> WHAT'S THE
-0.3010 <s> WHERE AM
-0.3010 <s> WHO AM
-0.3010 A SONG <\s>
-0.3010 AM I <\s>
-0.3010 BIRTHDAY <\s> </s>
-0.3010 CHANGE <\s> </s>
-0.3010 CHECK TRAFFIC <\s>
-0.3010 CHROME <\s> </s>
-0.3010 COLOR THEME CHANGE
-0.3010 DARKNESS <\s> </s>
-0.3010 DON'T KNOW THAT
-0.3010 DOWN <\s> </s>
-0.3010 FOR? <\s> </s>
-0.3010 FORTY-TWO SILICON VALLEY
-0.3010 HAPPY BIRTHDAY <\s>
-0.3010 HELLO DARKNESS <\s>
-0.3010 HIDE LOG <\s>
-0.3010 I <\s> </s>
-0.3010 I DON'T KNOW
-0.3010 KNOW THAT SONG
-0.3010 LIGHTS DOWN <\s>
-0.3010 LIGHTS UP <\s>
-0.3010 LIKE TO SEARCH
-0.3010 LOG <\s> </s>
-0.3010 ME A SONG
-0.3010 MUSIC PLAYER <\s>
-0.3010 OPEN CHROME <\s>
-0.3010 OPEN MUSIC PLAYER
-0.3010 PIZZA <\s> </s>
-0.3010 PLAYER <\s> </s>
-0.3010 RICK ROLL <\s>
-0.3010 ROLL <\s> </s>
-0.3010 SEARCH FOR? <\s>
-0.3010 SEARCH THE WEB
-0.3010 SHOW LOG <\s>
-0.3010 SILICON VALLEY <\s>
-0.3010 SING ME A
-0.3010 SONG <\s> </s>
-0.3010 SORRY I DON'T
-0.3010 THAT SONG <\s>
-0.3010 THE WEATHER <\s>
-0.3010 THE WEB <\s>
-0.3010 THEME CHANGE <\s>
-0.3010 TO SEARCH FOR?
-0.3010 TRAFFIC <\s> </s>
-0.3010 UP <\s> </s>
-0.3010 VALLEY <\s> </s>
-0.3010 WEATHER <\s> </s>
-0.3010 WEB <\s> </s>
-0.3010 WHAT WOULD YOU
-0.3010 WHAT'S THE WEATHER
-0.3010 WHERE AM I
-0.3010 WHO AM I
-0.3010 WOULD YOU LIKE
-0.3010 YOU LIKE TO

\end\